timestamp,gyro_bias[0],gyro_bias[1],gyro_bias[2],accel_bias[0],accel_bias[1],accel_bias[2]
32196000,-0.001369733,-0.00574472,0.000530458,0.022402955,0.003651142,-0.097823836
33196000,-0.001385188,-0.005725704,0.000485428,0.0231084,0.004294611,-0.096236385
34196000,-0.001398713,-0.005703369,0.000455016,0.023899756,0.004875657,-0.09517072
35196000,-0.001338447,-0.005737326,0.000838376,0.023834474,0.006477421,-0.09499957
36196000,-0.001287586,-0.005762846,0.00113778,0.009761809,0.021042192,-0.09303692
37196000,-0.001299441,-0.005743265,0.001147898,-0.029876756,0.020196086,-0.087959036
38196000,-0.001339825,-0.005728731,0.001215449,-0.075131916,0.011869531,-0.07971274
39196000,-0.001379474,-0.005722512,0.001318559,-0.113746084,0.006749189,-0.07041896
40196000,-0.001417991,-0.00571853,0.001448565,-0.13970102,0.009249298,-0.06195758
41196000,-0.001455745,-0.005710058,0.001574408,-0.15050553,0.016779253,-0.05514709
42196000,-0.001502355,-0.005682365,0.001693728,-0.15292864,0.039381154,-0.04817827
43196000,-0.001564338,-0.005646045,0.001747842,-0.15003456,0.07787126,-0.043526415
44196000,-0.001642311,-0.005626188,0.001719064,-0.14943229,0.123542204,-0.041150775
45196000,-0.001704698,-0.005641802,0.001639326,-0.16147903,0.15591983,-0.04177702
46196000,-0.001738755,-0.00567196,0.00153173,-0.17926274,0.17509817,-0.042943828
47196000,-0.001741662,-0.005699879,0.001392303,-0.1965905,0.18658508,-0.045060735
48196000,-0.001719244,-0.005725795,0.001292709,-0.20781861,0.19235373,-0.046166927
49196000,-0.001689569,-0.005740971,0.001225632,-0.21535943,0.19407636,-0.04516956
50196000,-0.00165158,-0.005752625,0.001186601,-0.22076759,0.19474111,-0.04372667
51196000,-0.00163316,-0.005755069,0.001178182,-0.22297633,0.19443446,-0.040111016
52196000,-0.001592468,-0.005777373,0.001182272,-0.22571084,0.19472392,-0.036197554
53196000,-0.00154232,-0.005806378,0.001183705,-0.22846362,0.19474986,-0.031528886
54196000,-0.001504991,-0.005821934,0.001175526,-0.23047069,0.19432612,-0.027412523
55196000,-0.001465364,-0.00583644,0.001176172,-0.23248114,0.19405428,-0.023158712
56196000,-0.001428833,-0.00585347,0.0011695,-0.23439837,0.1937138,-0.01998308
57196000,-0.001399964,-0.005857353,0.00116534,-0.23569098,0.19334526,-0.017548658
58196000,-0.001382878,-0.005868572,0.001148225,-0.23672506,0.19303252,-0.014848095
59196000,-0.001379123,-0.00587861,0.001130741,-0.23734508,0.19273476,-0.012715568
60196000,-0.001389041,-0.005881347,0.001120091,-0.23765837,0.1925335,-0.010897113
61196000,-0.001402679,-0.00587712,0.001109805,-0.23794495,0.1922506,-0.008779158
62196000,-0.001412849,-0.005862026,0.001102291,-0.23793623,0.19208504,-0.007370601
63196000,-0.001433375,-0.005851935,0.001088622,-0.237885,0.1918573,-0.005813015
64196000,-0.00145136,-0.005848033,0.001073326,-0.23822026,0.19153683,-0.005165563
65196000,-0.001454965,-0.005862802,0.001044295,-0.23807417,0.1907293,-0.004253495
66196000,-0.001430526,-0.005909597,0.00091914,-0.23812537,0.18672672,-0.004238717
67196000,-0.00136761,-0.005941432,0.000746824,-0.23771407,0.18021919,-0.005045778
68196000,-0.001325204,-0.005962604,0.000657071,-0.23712596,0.17475869,-0.005622432
69196000,-0.001302993,-0.005975397,0.000643626,-0.2362211,0.17170186,-0.006380182
70196000,-0.001293411,-0.005984491,0.000647927,-0.23510678,0.17011502,-0.006992871
71196000,-0.001291133,-0.005989419,0.000649558,-0.23466188,0.16923553,-0.008084436
72196000,-0.001293718,-0.005989535,0.000647586,-0.23480028,0.16858451,-0.009549579
73196000,-0.001299388,-0.005986654,0.000644918,-0.2352289,0.16820092,-0.009715801
74196000,-0.00130498,-0.005979216,0.000638351,-0.23579696,0.16775319,-0.010606684
75196000,-0.001300201,-0.005970848,0.000628432,-0.2359977,0.16809578,-0.011322951
76196000,-0.001289183,-0.005969877,0.000620557,-0.23601648,0.16828759,-0.010760123
77196000,-0.001278028,-0.005968281,0.00061537,-0.23622069,0.16877902,-0.010946441
78196000,-0.001271169,-0.005975439,0.000613026,-0.23624825,0.16934133,-0.010679285
79196000,-0.001262383,-0.005981961,0.000610378,-0.2363634,0.1693625,-0.009563609
80196000,-0.001270474,-0.005990557,0.000602574,-0.23612861,0.16964306,-0.008889586
81196000,-0.001284134,-0.005996205,0.00059331,-0.23601657,0.16985984,-0.007832196
82196000,-0.001285935,-0.006020184,0.000550769,-0.23615015,0.16940556,-0.00619983
83196000,-0.001273425,-0.006063894,0.000461123,-0.23688307,0.16844141,-0.004789679
84196000,-0.001266476,-0.006102084,0.000393378,-0.23772292,0.16671059,-0.002896081
85196000,-0.001260313,-0.006127179,0.000356429,-0.23834582,0.16432737,-0.001370871
86196000,-0.00126231,-0.006145766,0.000332632,-0.2392384,0.16162793,0.000849887
87196000,-0.001265539,-0.006160836,0.000321815,-0.2402536,0.15868065,0.003175458
88196000,-0.001278555,-0.006167371,0.000313375,-0.2417939,0.15609705,0.005958334
89196000,-0.001296086,-0.006170814,0.000310524,-0.24287403,0.15325871,0.008328923
90196000,-0.001318669,-0.006169084,0.00030175,-0.24434283,0.1514663,0.00871264
91196000,-0.001343086,-0.00616246,0.000300934,-0.24518111,0.1496849,0.008821204
92196000,-0.001356552,-0.006149476,0.000285049,-0.24554503,0.1481988,0.009631849
93196000,-0.001379196,-0.006140919,0.000275552,-0.24636444,0.1470412,0.008739797
94196000,-0.001401408,-0.006124171,0.000269773,-0.24666573,0.14611614,0.006873025
95196000,-0.00139909,-0.006105358,0.000254974,-0.24688095,0.14550869,0.006128443
96196000,-0.001375402,-0.006092762,0.000240528,-0.24752322,0.14534548,0.005410358
97196000,-0.001345209,-0.006079084,0.000224581,-0.24810302,0.14508191,0.0042911
98196000,-0.001309148,-0.006058266,0.000206894,-0.24877831,0.14436366,0.003371277
99196000,-0.001267162,-0.006023209,0.000171522,-0.25007027,0.14330629,0.001826056
100196000,-0.001220705,-0.006000241,8.59E-05,-0.25263253,0.14144838,0.000553337
101196000,-0.001188948,-0.00598732,2.53E-05,-0.25486556,0.13938013,-0.001629535
102196000,-0.001162423,-0.005981791,2.82E-06,-0.2568208,0.13779372,-0.002719182
103196000,-0.001134099,-0.005973433,-2.35E-06,-0.25912282,0.13599034,-0.003748871
104196000,-0.001112539,-0.005973908,3.51E-06,-0.26123923,0.13529865,-0.004048456
105196000,-0.001096912,-0.005979196,5.39E-06,-0.2629694,0.13583662,-0.004620754
106196000,-0.001074866,-0.005982451,3.16E-06,-0.26442766,0.1365482,-0.005269428
107196000,-0.001045394,-0.00597791,4.24E-06,-0.265933,0.1377837,-0.005687813
108196000,-0.001011664,-0.00596835,3.05E-06,-0.26693213,0.13894835,-0.006610936
109196000,-0.000972061,-0.005962772,7.74E-06,-0.26740795,0.13966967,-0.007863293
110196000,-0.000926384,-0.005949386,1.22E-05,-0.26775753,0.14049911,-0.008978682
111196000,-0.000886696,-0.00593534,5.73E-06,-0.26820412,0.14138424,-0.009543047
112196000,-0.000862233,-0.005937439,-9.39E-06,-0.2695687,0.14235534,-0.008904927
113196000,-0.000854219,-0.005936079,-2.99E-05,-0.27019313,0.14309204,-0.007246804
114196000,-0.000845783,-0.00594166,-4.11E-05,-0.2710549,0.14430131,-0.005066086
115196000,-0.000843618,-0.005958643,-7.14E-05,-0.27207124,0.14529532,-0.003200119
116196000,-0.000829703,-0.005974542,-0.000112545,-0.27300587,0.14526935,-0.001239133
117196000,-0.000804345,-0.005970193,-0.000135112,-0.2724076,0.14489213,0.001517459
118196000,-0.000781128,-0.005952673,-0.000136585,-0.27098015,0.14548269,0.003022773
119196000,-0.000770443,-0.005934066,-0.000129518,-0.26938352,0.14688404,0.004408407
120196000,-0.000767494,-0.005921447,-0.000119404,-0.26828054,0.14840263,0.0042305
121196000,-0.000765313,-0.005900228,-0.000118049,-0.2671802,0.15114994,0.003262102
122196000,-0.000763405,-0.005885298,-0.000113693,-0.26605305,0.15347338,0.001180921
123196000,-0.000760067,-0.005872185,-0.000112914,-0.265097,0.15558857,-0.001309149
124196000,-0.000755907,-0.005860104,-0.00011233,-0.26386246,0.15758368,-0.004136962
125196000,-0.00075418,-0.00584983,-0.000108532,-0.26270762,0.15902431,-0.006754084
126196000,-0.000746463,-0.005840594,-0.000113887,-0.261177,0.16040288,-0.009818547
127196000,-0.000737627,-0.005826246,-0.000122403,-0.25967142,0.16216032,-0.012316393
128196000,-0.000735102,-0.005815019,-0.000134032,-0.258547,0.16357294,-0.013426117
129196000,-0.000729916,-0.005801874,-0.000157588,-0.25738177,0.16498831,-0.014027963
130196000,-0.000727767,-0.00579062,-0.000179969,-0.25679126,0.16646865,-0.013999273
131196000,-0.00072857,-0.005779334,-0.000200159,-0.25652003,0.16841365,-0.014059079
132196000,-0.00072823,-0.005770047,-0.000213617,-0.2561512,0.17010371,-0.012991044
133196000,-0.000728708,-0.005765453,-0.0002229,-0.25616053,0.17150049,-0.012082556
134196000,-0.000730572,-0.005760093,-0.000229446,-0.25629944,0.17335401,-0.010865695
135196000,-0.000731609,-0.005755267,-0.000230743,-0.25637546,0.17492901,-0.009206103
136196000,-0.000734135,-0.005749871,-0.000229725,-0.2566859,0.17717981,-0.008453487
137196000,-0.000733828,-0.00574311,-0.000221876,-0.25688186,0.17903681,-0.008838383
138196000,-0.000735473,-0.005732581,-0.000219921,-0.25736502,0.18128881,-0.00817058
139196000,-0.000736371,-0.00571778,-0.000212876,-0.25756842,0.1833348,-0.006903739
140204000,-0.000736363,-0.005698936,-0.000201899,-0.25761846,0.18526796,-0.004383884
141196000,-0.000735663,-0.005679748,-0.000187079,-0.2577695,0.18679182,-0.001259695
142196000,-0.000737388,-0.005659397,-0.000168931,-0.25756934,0.18831807,0.00141733
143196000,-0.000740375,-0.00564181,-0.000154252,-0.2574668,0.18955311,0.002838622
144196000,-0.00074402,-0.005628001,-0.00014332,-0.25759324,0.19050618,0.003175103
145196000,-0.000745697,-0.005615163,-0.00013388,-0.25744864,0.19198206,0.002051065
146204000,-0.000749129,-0.005603214,-0.000128109,-0.2576309,0.19276205,9.74E-06
147196000,-0.000747784,-0.005603418,-0.000123937,-0.25726756,0.1930241,-0.00159464
148196000,-0.000739995,-0.00560157,-0.000110068,-0.25669768,0.19279179,-0.004316581
149196000,-0.000733945,-0.005609566,-9.40E-05,-0.25628886,0.19285467,-0.007585809
150196000,-0.00071641,-0.005638051,-7.18E-05,-0.2558896,0.19428863,-0.011132088
151196000,-0.000676417,-0.005687631,-5.75E-05,-0.25685176,0.19679506,-0.01450812
152196000,-0.000624231,-0.005765086,-4.48E-05,-0.25911212,0.2007588,-0.01698423
153196000,-0.000601205,-0.005816195,-4.24E-05,-0.26075625,0.20369099,-0.018173983
154196000,-0.000589461,-0.00587712,-3.79E-05,-0.26242247,0.20784375,-0.019081047
155196000,-0.000581203,-0.005914016,-3.76E-05,-0.26382372,0.2106938,-0.019757064
156196000,-0.000577152,-0.005928776,-3.80E-05,-0.26440683,0.21219504,-0.019772207
157196000,-0.000575679,-0.005946512,-3.51E-05,-0.26469398,0.21358286,-0.019858077
158196000,-0.000575389,-0.005970344,-3.02E-05,-0.26469848,0.21504705,-0.020229336
159196000,-0.000581227,-0.005991338,-2.68E-05,-0.26438278,0.2163729,-0.021105982
160196000,-0.00057433,-0.006015432,-2.01E-05,-0.2641797,0.217598,-0.023313472
161196000,-0.000568869,-0.006042011,-6.60E-06,-0.26427898,0.21895383,-0.025367564
162196000,-0.000562038,-0.006062985,1.01E-05,-0.26450306,0.22006875,-0.029357858
163196000,-0.000543354,-0.006076674,2.15E-05,-0.26453432,0.22093487,-0.03331206
164196000,-0.000541936,-0.006086595,3.42E-05,-0.26481456,0.22176705,-0.036673367
165196000,-0.000536817,-0.006102618,5.00E-05,-0.26513812,0.22297774,-0.038414273
166196000,-0.000515756,-0.00610779,6.51E-05,-0.26548722,0.22353148,-0.04020866
167196000,-0.000511173,-0.006100593,7.73E-05,-0.2658712,0.2244666,-0.04108952
168196000,-0.000503572,-0.006090693,9.43E-05,-0.26614702,0.22522649,-0.04259382
169196000,-0.000508157,-0.00607085,0.000114879,-0.26642358,0.2260548,-0.04366759
170204000,-0.000513405,-0.006038824,0.000126718,-0.2663704,0.22666074,-0.044235587
171196000,-0.000517758,-0.006020655,0.00015318,-0.2666993,0.22694124,-0.044893038
172196000,-0.000531948,-0.006001487,0.000170864,-0.2668846,0.22742563,-0.04481539
173196000,-0.000542085,-0.005994378,0.000187903,-0.26710525,0.22752288,-0.04613675
174196000,-0.000551843,-0.00598796,0.000208673,-0.26735342,0.22758353,-0.045431312
175196000,-0.000556501,-0.005975139,0.000216361,-0.2674696,0.22732809,-0.04564021
176196000,-0.000564374,-0.005969924,0.000224607,-0.26760313,0.22732097,-0.045192983
177196000,-0.000573314,-0.005969248,0.000237286,-0.26778322,0.22719741,-0.043639205
178196000,-0.000572793,-0.0059606,0.000237134,-0.26715413,0.2274253,-0.04136232
179196000,-0.000574817,-0.00596361,0.000236928,-0.2672218,0.22705156,-0.038301077
180196000,-0.000574521,-0.005967298,0.000235259,-0.26722357,0.22657973,-0.03577921
181196000,-0.000576358,-0.005969657,0.00024039,-0.2669326,0.22628592,-0.033430383
182196000,-0.000575094,-0.005972699,0.000245161,-0.26547712,0.22590908,-0.03138787
183196000,-0.000579732,-0.005975151,0.00025586,-0.264849,0.22522227,-0.029277757
184196000,-0.000585871,-0.005973224,0.000262163,-0.26459423,0.22520435,-0.026785832
185196000,-0.000587706,-0.005977097,0.000260182,-0.26463315,0.22503766,-0.026174003
186196000,-0.000589594,-0.005982505,0.000262964,-0.2645217,0.22424032,-0.02572265
187196000,-0.000584993,-0.005979735,0.000265966,-0.26428124,0.22374654,-0.026186367
188196000,-0.000582303,-0.005975799,0.00026544,-0.26402932,0.22349676,-0.026499348
189196000,-0.000575219,-0.005970135,0.000265115,-0.26337075,0.22313488,-0.027621228
190196000,-0.000571299,-0.005960654,0.000261775,-0.26282293,0.2230339,-0.028448638
191196000,-0.000568158,-0.005955169,0.000253959,-0.26259226,0.22319432,-0.029071324
192196000,-0.000559031,-0.005946984,0.000250353,-0.2621529,0.22329757,-0.028595757
193196000,-0.000545508,-0.005937842,0.000246206,-0.2614773,0.2233021,-0.027638469
194196000,-0.000534266,-0.00592814,0.000238351,-0.26080233,0.22320354,-0.026653312
195196000,-0.000520705,-0.005919863,0.000227315,-0.26006025,0.22300878,-0.025316378
196196000,-0.00049993,-0.005922997,0.000235411,-0.25897402,0.22245224,-0.024062918
197196000,-0.000488008,-0.005928004,0.000227561,-0.25834718,0.22201884,-0.02447728
198196000,-0.000467339,-0.005942235,0.000225375,-0.2574852,0.2214867,-0.02516069
199204000,-0.000447043,-0.005955542,0.000208006,-0.2570456,0.22079389,-0.025753146
200196000,-0.000422155,-0.005974151,0.000188948,-0.25640553,0.22026967,-0.026901858
201196000,-0.000398824,-0.005988992,0.000174173,-0.25555816,0.21984471,-0.027307326
202196000,-0.00038496,-0.006008084,0.000176992,-0.25426635,0.21964544,-0.027902318
203196000,-0.000371582,-0.006024564,0.000173491,-0.2530167,0.21951012,-0.029713951
204196000,-0.000360541,-0.006034341,0.000169039,-0.25215483,0.21947838,-0.030430013
205196000,-0.000353182,-0.006043498,0.000165903,-0.25164416,0.21930452,-0.030502731
206196000,-0.000347727,-0.006047422,0.000163846,-0.250936,0.21927485,-0.030320736
207196000,-0.00034554,-0.006051317,0.000166205,-0.25010023,0.21919249,-0.02923908
208196000,-0.000349218,-0.00605306,0.000166239,-0.24979445,0.21876118,-0.028336242
209196000,-0.000359778,-0.006045551,0.000176649,-0.24886595,0.21797293,-0.026803264
210196000,-0.000368019,-0.006042294,0.000188832,-0.2478857,0.21665823,-0.024838828
211196000,-0.00037761,-0.006033513,0.00020218,-0.24698104,0.21518822,-0.021428024
212196000,-0.000386292,-0.006027003,0.00022182,-0.24583349,0.21393716,-0.018740132
213196000,-0.000397981,-0.006033783,0.000236884,-0.24498644,0.21329224,-0.015823707
214196000,-0.000400389,-0.006022659,0.000249185,-0.24430679,0.21214263,-0.012365369
215196000,-0.000399698,-0.006008715,0.000258024,-0.24386364,0.2112582,-0.009438589
216196000,-0.000393484,-0.006001167,0.000268935,-0.24328627,0.21041608,-0.00601401
217196000,-0.000386749,-0.005998189,0.000280776,-0.24276103,0.2099617,-0.002221684
218196000,-0.000380709,-0.006005886,0.000291817,-0.24223429,0.20966244,0.000187331
219196000,-0.000381792,-0.006015202,0.000303732,-0.2414499,0.20922904,0.003043243
220196000,-0.000378084,-0.00602763,0.000306693,-0.241039,0.20872864,0.004640368
221196000,-0.000364088,-0.006030068,0.000315033,-0.24058679,0.20774218,0.006790065
222196000,-0.00034906,-0.006034944,0.000326173,-0.24031849,0.20720552,0.008419131
223204000,-0.000335171,-0.006026694,0.000333671,-0.24004672,0.2061878,0.010391103
224196000,-0.000329272,-0.006018363,0.000341396,-0.23969679,0.20525956,0.011363867
225196000,-0.000327726,-0.006010912,0.000342894,-0.23945864,0.20450865,0.012210238
226196000,-0.00032123,-0.005998537,0.000351152,-0.23913488,0.20347722,0.012912982
227196000,-0.000317694,-0.005988954,0.000359723,-0.23890665,0.20282966,0.012599391
228196000,-0.00031451,-0.005971848,0.000365286,-0.23872392,0.2021785,0.012780029
229196000,-0.000306036,-0.005953003,0.000365634,-0.23862773,0.2014042,0.012049048
230196000,-0.000293425,-0.005920621,0.000364518,-0.23855193,0.2004593,0.010016881
231196000,-0.000273247,-0.005892905,0.000363188,-0.23853716,0.19946079,0.007745199
232196000,-0.000255999,-0.005864857,0.00036409,-0.23865783,0.19917245,0.005465356
233196000,-0.000237243,-0.005847349,0.000364324,-0.23883523,0.1990137,0.003202847
234204000,-0.000205556,-0.005831801,0.000355062,-0.23913833,0.19873807,0.00013308
235196000,-0.000179701,-0.005810609,0.000357414,-0.23929036,0.19834185,-0.002626787
236196000,-0.000159347,-0.005796464,0.000361325,-0.23951343,0.19836555,-0.005831226
237196000,-0.000138903,-0.005779248,0.000355152,-0.23964915,0.19817287,-0.008941241
238196000,-0.000117727,-0.00575902,0.000358017,-0.23975849,0.19782026,-0.013909007
239196000,-0.000101957,-0.005740665,0.000353563,-0.23981929,0.1975842,-0.01838355
240196000,-9.11E-05,-0.005728012,0.000343919,-0.23990408,0.19764291,-0.023597892
241196000,-9.03E-05,-0.00571101,0.000335268,-0.239891,0.19793898,-0.027987838
242196000,-8.86E-05,-0.005697338,0.000333074,-0.23986904,0.19822128,-0.032614175
243196000,-8.60E-05,-0.005681521,0.000323763,-0.2396818,0.19802135,-0.0355767
244196000,-8.30E-05,-0.005671503,0.000318268,-0.2395454,0.197941,-0.037916757
245196000,-8.80E-05,-0.005668369,0.000312336,-0.23941949,0.19817114,-0.040176533
246196000,-9.33E-05,-0.005666285,0.00030569,-0.23924233,0.19827902,-0.042649627
247196000,-9.86E-05,-0.005661142,0.000298521,-0.23906705,0.19826166,-0.04433344
248196000,-0.000100283,-0.005654541,0.000298992,-0.23898867,0.19849633,-0.045907374
249196000,-9.67E-05,-0.005640615,0.000293765,-0.23887268,0.1983227,-0.047004968
250196000,-9.23E-05,-0.005631426,0.000279618,-0.23876834,0.19842392,-0.047836285
251196000,-9.12E-05,-0.005622539,0.000261878,-0.23873928,0.19861704,-0.048249904
252196000,-9.82E-05,-0.005621308,0.000273257,-0.23874412,0.19838268,-0.04835015
253196000,-0.000107288,-0.005626536,0.000268986,-0.23867981,0.1979484,-0.048361335
254196000,-0.000110734,-0.005625674,0.000265958,-0.23852058,0.19767714,-0.04777684
255196000,-0.000106858,-0.005623977,0.000260227,-0.23844874,0.19814934,-0.046911623
