timestamp,gyro_bias[0],gyro_bias[1],gyro_bias[2],accel_bias[0],accel_bias[1],accel_bias[2]
10184000,-0.001002324,-0.005376291,6.47E-05,0.028538529,-0.001607298,-0.12073175
11184000,0.000454857,-0.006628019,0.003748232,0.027224276,0.003208061,-0.121274486
12184000,0.000685283,-0.006907286,0.004454083,-0.010478277,0.011873182,-0.11702933
13183999,-0.000341439,-0.006922439,0.005174248,-0.06272989,-0.01037821,-0.10894821
14184000,-0.000867319,-0.007001173,0.005775631,-0.09718537,-0.01713313,-0.10001266
15184000,-0.000990945,-0.007015809,0.00603844,-0.11386535,-0.014707462,-0.09577942
16184000,-0.001168101,-0.007049018,0.006425925,-0.12137702,-0.009506444,-0.09521197
17184000,-0.001339723,-0.006874509,0.00660227,-0.11198437,0.013402536,-0.09234931
18184000,-0.002004401,-0.00659003,0.005792507,-0.094883464,0.09598291,-0.0899271
19192000,-0.002833229,-0.006455765,0.004110492,-0.08610158,0.19371957,-0.09692966
20184000,-0.003182202,-0.006547849,0.002938571,-0.093476646,0.22978675,-0.10231124
21184000,-0.003254401,-0.006656304,0.0024826,-0.1005331,0.2360376,-0.10502454
22184000,-0.003271249,-0.006665088,0.00234801,-0.100292675,0.23530377,-0.10393204
23184000,-0.003248764,-0.006652494,0.002176004,-0.107820325,0.22971338,-0.102033265
24184000,-0.003197287,-0.006652212,0.001920517,-0.1262987,0.22273439,-0.10113285
25184000,-0.003112622,-0.006657149,0.001693921,-0.14356188,0.21799141,-0.102408506
26184000,-0.002941385,-0.006709375,0.00140495,-0.16449356,0.21533278,-0.106417194
27184000,-0.002714125,-0.006787029,0.001157968,-0.17884968,0.21356735,-0.109360814
28184000,-0.002533541,-0.006805656,0.00099207,-0.18630093,0.20985223,-0.10904128
29191999,-0.002391829,-0.006793421,0.000920036,-0.19023277,0.20667353,-0.10699982
30191999,-0.002266414,-0.006732125,0.000900498,-0.19235143,0.20324849,-0.10382275
31192000,-0.002163969,-0.006675758,0.000925148,-0.19395453,0.20132874,-0.10058845
32192000,-0.002066664,-0.006587898,0.000939234,-0.19455345,0.199465,-0.097868934
33192000,-0.001978577,-0.006494454,0.000965622,-0.19497433,0.19825895,-0.095742434
34192000,-0.001905254,-0.006396704,0.000970778,-0.19498506,0.19727227,-0.09466146
35192000,-0.001849086,-0.006293865,0.000951804,-0.19446327,0.19617535,-0.09301547
36192000,-0.00181295,-0.006207058,0.000914459,-0.19375254,0.1951787,-0.09231173
37192000,-0.001783353,-0.006122682,0.000874204,-0.1929795,0.19433886,-0.09010569
38192000,-0.001753433,-0.006061428,0.00085257,-0.1922891,0.19380982,-0.08751436
39192000,-0.001711017,-0.005998598,0.000812637,-0.19128439,0.19294757,-0.08339346
40192000,-0.001687283,-0.005948366,0.00079293,-0.19065312,0.19275649,-0.078558624
41192000,-0.001646012,-0.005919495,0.000795844,-0.19003716,0.19262238,-0.07346902
42192000,-0.001608315,-0.005899505,0.00078425,-0.1895559,0.19226772,-0.06824386
43192000,-0.00158267,-0.005890216,0.000762662,-0.18951611,0.19161145,-0.06347827
44192000,-0.001551549,-0.005893999,0.000748363,-0.18998206,0.19083512,-0.058112185
45192000,-0.001520416,-0.00588752,0.000708731,-0.19042134,0.18970679,-0.05332931
46192000,-0.001504767,-0.005878205,0.000687644,-0.19111475,0.18920857,-0.048859432
47192000,-0.001493154,-0.005859183,0.000662511,-0.1920987,0.18873477,-0.044127975
48192000,-0.001477539,-0.005844662,0.000652932,-0.19310686,0.18855748,-0.039668355
49192000,-0.001460484,-0.005825148,0.00063997,-0.1940191,0.18827291,-0.03553293
50192000,-0.001450281,-0.005815026,0.000641983,-0.19496174,0.18830128,-0.031284675
51192000,-0.001434186,-0.005802893,0.000635774,-0.19579089,0.1880026,-0.026148029
52192000,-0.001416938,-0.005798324,0.00063549,-0.19630845,0.18797791,-0.021944256
53192000,-0.001395701,-0.005787811,0.000623043,-0.19644903,0.18804288,-0.01820942
54192000,-0.001375007,-0.005767529,0.000606354,-0.19621423,0.18805887,-0.015686441
55192000,-0.001360392,-0.005760964,0.000614184,-0.1957619,0.18824273,-0.013057327
56192000,-0.001349083,-0.005763502,0.000608019,-0.19542895,0.18822177,-0.011383466
57192000,-0.001330015,-0.005777076,0.000601136,-0.1953488,0.18783706,-0.010078028
58192000,-0.001316128,-0.005796879,0.000576024,-0.19558963,0.18721943,-0.009098359
59192000,-0.001311525,-0.005820139,0.000548535,-0.19583948,0.18674639,-0.007900846
60192000,-0.001319681,-0.005836538,0.000535979,-0.19604917,0.18657857,-0.007082514
61192000,-0.001334135,-0.005852206,0.000501272,-0.1963264,0.18644255,-0.005208806
62192000,-0.001332703,-0.005890323,0.000412509,-0.1980769,0.18443145,-0.003685779
63192000,-0.001332874,-0.005925316,0.000318608,-0.20071201,0.1816608,-0.002746748
64192000,-0.001350799,-0.005959036,0.000270001,-0.20424598,0.17913148,-0.001918834
65192000,-0.00137288,-0.00598624,0.000259416,-0.20811127,0.17681327,-0.001098703
66192000,-0.001387766,-0.006001075,0.000242941,-0.21137545,0.17463954,-0.000361956
67192000,-0.001406618,-0.006015865,0.000226297,-0.21528025,0.17199408,-0.000902219
68192000,-0.001428413,-0.006018546,0.000215755,-0.21820566,0.16974887,-0.00242447
69192000,-0.001450805,-0.006014744,0.0002116,-0.22020939,0.16836451,-0.00410064
70192000,-0.001463089,-0.006007731,0.000204598,-0.22150384,0.16765615,-0.00480421
71192000,-0.001466773,-0.006000566,0.000190069,-0.22239114,0.16710097,-0.006337156
72192000,-0.001469514,-0.005991228,0.0001734,-0.22332679,0.16661845,-0.008272404
73192000,-0.001471788,-0.005984878,0.000161467,-0.22387938,0.16610481,-0.008573224
74192000,-0.001466918,-0.005976844,0.000150636,-0.22457826,0.16588464,-0.009327036
75200000,-0.001456484,-0.005969125,0.000137828,-0.22482656,0.16568764,-0.009887737
76192000,-0.001447482,-0.005969034,0.000129381,-0.225282,0.16549417,-0.009209889
77192000,-0.001429191,-0.005966387,0.000108843,-0.22490303,0.16521536,-0.008716897
78192000,-0.001425282,-0.005967644,9.04E-05,-0.22428107,0.16454194,-0.008192032
79192000,-0.001422882,-0.005984851,7.52E-05,-0.2242681,0.1627532,-0.007325799
80192000,-0.001415494,-0.005996524,7.31E-05,-0.22398633,0.1604603,-0.006842943
81192000,-0.001408642,-0.006019767,8.90E-05,-0.22433344,0.15751438,-0.006424618
82192000,-0.001409668,-0.006036826,0.000101258,-0.22462739,0.15609519,-0.004790172
83192000,-0.001413918,-0.006048011,0.000107398,-0.2253076,0.15497126,-0.003955117
84192000,-0.00141835,-0.00605533,0.000113544,-0.22557634,0.15423244,-0.001893204
85192000,-0.001425745,-0.006053743,0.000114216,-0.22609405,0.15376626,-0.000910571
86192000,-0.001427492,-0.006047646,0.000112291,-0.22643861,0.15314147,0.000907022
87192000,-0.001428982,-0.006048582,0.000107905,-0.22675669,0.15266211,0.00185803
88192000,-0.001431956,-0.006045832,9.49E-05,-0.22721688,0.15213168,0.003290184
89192000,-0.001437152,-0.006036044,7.23E-05,-0.22768375,0.15123126,0.004505728
90192000,-0.001460148,-0.006025301,5.42E-05,-0.22720124,0.15088053,0.003967917
91200000,-0.001482777,-0.006013092,3.51E-05,-0.22651115,0.1505778,0.003095198
92192000,-0.001491982,-0.006015339,1.67E-05,-0.2262102,0.15027657,0.003221923
93192000,-0.00151497,-0.006020444,7.44E-06,-0.22607931,0.15005586,0.001847304
94200000,-0.001517376,-0.00601969,1.76E-05,-0.2262547,0.14879423,-0.000895015
95192000,-0.00149921,-0.00602268,3.17E-05,-0.22662942,0.14708722,-0.003394906
96192000,-0.001471045,-0.006020062,3.84E-05,-0.22710155,0.14600307,-0.006110572
97192000,-0.001429449,-0.006011626,1.63E-05,-0.22806339,0.14489895,-0.008998959
98192000,-0.001373548,-0.006011759,-1.68E-05,-0.23035432,0.14406323,-0.010647049
99192000,-0.001324205,-0.006011758,-4.95E-05,-0.23344216,0.14290495,-0.011231345
100192000,-0.001287984,-0.006011931,-7.31E-05,-0.23666427,0.14176138,-0.010434048
101192000,-0.001254008,-0.006006168,-8.22E-05,-0.24037233,0.14015079,-0.009886204
102192000,-0.001229873,-0.005995452,-8.11E-05,-0.2433577,0.13865262,-0.009229505
103192000,-0.001207134,-0.005981026,-7.73E-05,-0.24630374,0.13778761,-0.008966295
104192000,-0.001185306,-0.005970361,-6.93E-05,-0.249441,0.13719276,-0.008211652
105192000,-0.001167494,-0.005963029,-6.41E-05,-0.25146312,0.13740087,-0.007892107
106192000,-0.001139664,-0.005954778,-6.35E-05,-0.25343585,0.13820273,-0.008424033
107192000,-0.001109049,-0.005947767,-6.35E-05,-0.25492656,0.1388073,-0.008408442
108192000,-0.001074679,-0.005938953,-6.23E-05,-0.2559717,0.1393942,-0.009411546
109192000,-0.001038779,-0.005937807,-6.17E-05,-0.25624022,0.1397462,-0.010084127
110192000,-0.001010098,-0.005938098,-7.19E-05,-0.25573483,0.1393285,-0.010906608
111192000,-0.000989011,-0.005939215,-8.23E-05,-0.25506765,0.13843073,-0.010568711
112192000,-0.000980125,-0.005926434,-8.57E-05,-0.25389117,0.1390893,-0.009163112
113192000,-0.000982159,-0.005924099,-8.98E-05,-0.25388682,0.13998973,-0.00560803
114192000,-0.000989611,-0.005918455,-9.24E-05,-0.25460997,0.14215404,-0.001384619
115192000,-0.000994294,-0.005908873,-9.48E-05,-0.25566286,0.14516313,0.002599621
116192000,-0.000997559,-0.005897819,-0.000101254,-0.25719953,0.1489203,0.005229898
117192000,-0.00100189,-0.005889109,-0.000120779,-0.25836816,0.15236558,0.007964684
118192000,-0.00099798,-0.005886456,-0.000133217,-0.25944188,0.15510626,0.008742929
119192000,-0.000991539,-0.005884546,-0.000141084,-0.26017037,0.15755488,0.008699304
120192000,-0.000977819,-0.005888779,-0.000135798,-0.25983882,0.15873203,0.007577334
121192000,-0.000967561,-0.005886402,-0.00014157,-0.25978455,0.159891,0.005363835
122192000,-0.000961086,-0.005883371,-0.000140865,-0.25953937,0.1607559,0.002187908
123192000,-0.000959914,-0.005879856,-0.00013996,-0.25941733,0.16099101,-2.41E-05
124192000,-0.000957247,-0.005873675,-0.000137888,-0.25898328,0.16138682,-0.003213705
125199999,-0.000956733,-0.005865174,-0.000123358,-0.2580524,0.16263324,-0.006093982
126199999,-0.000949893,-0.005859106,-0.000122005,-0.25689736,0.16389169,-0.009162257
127199999,-0.000941004,-0.00585163,-0.000122211,-0.2557251,0.1657324,-0.011879616
128199999,-0.000931584,-0.005850718,-0.000127903,-0.25504997,0.16699988,-0.013601617
129199999,-0.000921514,-0.00584202,-0.000132784,-0.2542273,0.16881113,-0.014751089
130199999,-0.000910668,-0.005835251,-0.000139393,-0.25368837,0.17055288,-0.01634354
131200000,-0.000902744,-0.005832702,-0.000145322,-0.25329965,0.17180154,-0.016846983
132200000,-0.00089733,-0.005825106,-0.000154413,-0.2529116,0.17366323,-0.016805517
133200000,-0.000894028,-0.005818802,-0.000172994,-0.25294474,0.17539193,-0.016908148
134200000,-0.000897582,-0.005804866,-0.000191221,-0.25284117,0.1775057,-0.015608309
135200000,-0.000902742,-0.005796015,-0.000209182,-0.25284752,0.17920245,-0.014382519
136200000,-0.00091273,-0.005789905,-0.000225674,-0.2531137,0.18111603,-0.012754744
137200000,-0.000919254,-0.005781674,-0.000235202,-0.2532335,0.18250978,-0.011497097
138200000,-0.00092513,-0.005776202,-0.000247598,-0.2534128,0.18402287,-0.008660231
139200000,-0.000927691,-0.005765656,-0.000252688,-0.25365314,0.18592204,-0.006444569
140200000,-0.000928337,-0.005759317,-0.000255421,-0.25405192,0.18762925,-0.00329482
141200000,-0.000925752,-0.005746637,-0.000246097,-0.25483656,0.1889243,0.000145979
142200000,-0.000922043,-0.005732455,-0.000232368,-0.25550437,0.18992384,0.003407403
143200000,-0.000919675,-0.00571588,-0.000209598,-0.25585482,0.19090036,0.005505554
144200000,-0.000918576,-0.005706876,-0.000192406,-0.25592658,0.1915027,0.005706061
145200000,-0.000917918,-0.005699222,-0.000165583,-0.2556855,0.19297333,0.004528809
146200000,-0.000921012,-0.005699948,-0.000144496,-0.25568852,0.19375591,0.002458618
147200000,-0.000919153,-0.005703601,-0.000125529,-0.2554861,0.19500083,-0.00023758
148200000,-0.000930067,-0.005711352,-0.000114037,-0.25574744,0.19521806,-0.003148776
149200000,-0.000950588,-0.005716243,-0.000102467,-0.25637272,0.19475491,-0.006777448
150200000,-0.000972467,-0.005727564,-9.10E-05,-0.2569058,0.19444062,-0.010670573
151200000,-0.000987807,-0.00573503,-8.48E-05,-0.2572502,0.19390422,-0.013805888
152200000,-0.000992489,-0.005749917,-8.22E-05,-0.25725633,0.19371335,-0.016781539
153200000,-0.0009865,-0.00575435,-7.95E-05,-0.25721493,0.19369072,-0.018059682
154200000,-0.000977732,-0.005755686,-7.02E-05,-0.25680295,0.19400758,-0.01989674
155200000,-0.000962679,-0.005769185,-6.05E-05,-0.2564365,0.1948128,-0.021447834
156200000,-0.000933652,-0.00578277,-5.41E-05,-0.25648576,0.19583645,-0.021326045
157200000,-0.000904433,-0.005801882,-4.51E-05,-0.25657052,0.19708966,-0.02157011
158200000,-0.000881016,-0.005818306,-3.12E-05,-0.25636932,0.1981064,-0.021695139
159200000,-0.000825747,-0.005843975,-1.03E-05,-0.25654036,0.19932176,-0.022535121
160200000,-0.000783974,-0.005873277,9.87E-06,-0.25673166,0.20096938,-0.02424797
161200000,-0.000747201,-0.005889968,3.45E-05,-0.256716,0.20203628,-0.025656316
162200000,-0.000705526,-0.005907725,5.95E-05,-0.25692293,0.20335765,-0.028759765
163200000,-0.000675348,-0.00593121,7.54E-05,-0.25728706,0.20490888,-0.032913867
164200000,-0.000644279,-0.005946322,9.34E-05,-0.25759396,0.20595865,-0.035667554
165200000,-0.000614044,-0.005953654,0.000110554,-0.2578658,0.20669153,-0.0371411
166200000,-0.000598785,-0.005957278,0.000125223,-0.2579635,0.20784758,-0.038623046
167200000,-0.000580578,-0.005950242,0.00013495,-0.25803667,0.20848903,-0.039743405
168200000,-0.000575114,-0.005932088,0.000139925,-0.25802124,0.2090446,-0.041175954
169200000,-0.00057303,-0.005905688,0.000157049,-0.25772345,0.2094245,-0.04242289
170200000,-0.000574257,-0.005884278,0.000159997,-0.257639,0.20969447,-0.04286387
171200000,-0.000588914,-0.005856484,0.000163589,-0.25729552,0.21041511,-0.043506574
172200000,-0.00059306,-0.005836104,0.000164329,-0.25722447,0.21058983,-0.04303834
173200000,-0.000602229,-0.005817871,0.000162525,-0.25723678,0.21068883,-0.04405923
174200000,-0.000604366,-0.005801472,0.000161371,-0.2572244,0.21074592,-0.0434274
175200000,-0.000608394,-0.005797375,0.000160844,-0.25737676,0.21076687,-0.04327607
176200000,-0.00060668,-0.005790086,0.000158779,-0.25750223,0.2106971,-0.042938713
177200000,-0.000595654,-0.005786509,0.000167692,-0.25777,0.2107518,-0.041699164
178200000,-0.000585237,-0.005795696,0.000180065,-0.25825632,0.21131004,-0.039141916
179200000,-0.000573676,-0.005795242,0.000191614,-0.25865686,0.21154894,-0.036577996
180200000,-0.000562632,-0.005808417,0.00018896,-0.25913936,0.21236284,-0.034317464
181200000,-0.000545418,-0.005819972,0.000193633,-0.25996208,0.21324557,-0.032515362
182200000,-0.000533358,-0.005835007,0.000196513,-0.26029834,0.21424697,-0.030867295
183200000,-0.000527055,-0.005843684,0.000206118,-0.26041013,0.2151892,-0.02913965
184200000,-0.000526649,-0.00584678,0.000213445,-0.26041216,0.21576667,-0.027622532
185200000,-0.000522784,-0.005859773,0.000210699,-0.26045412,0.21622823,-0.027274225
186200000,-0.000524689,-0.00586947,0.000209776,-0.26045692,0.21649615,-0.027825415
187200000,-0.000528107,-0.005873718,0.000216043,-0.2603968,0.2164417,-0.02853603
188200000,-0.000535187,-0.00587698,0.000221025,-0.2603383,0.21624096,-0.028936762
189200000,-0.000539246,-0.005877299,0.000228289,-0.26034454,0.21609636,-0.029729573
190200000,-0.000549076,-0.00588036,0.000237438,-0.26037592,0.21606125,-0.030354675
191200000,-0.000548828,-0.005871001,0.000242892,-0.26034507,0.21580517,-0.030734928
192200000,-0.000543662,-0.005862297,0.000249245,-0.2602564,0.21546791,-0.030799419
193200000,-0.000536135,-0.00584432,0.000257844,-0.2601033,0.21518472,-0.030405764
194200000,-0.000531757,-0.005831144,0.000263469,-0.25997865,0.21493398,-0.029603677
195200000,-0.000531916,-0.005820175,0.000265586,-0.25990295,0.21487921,-0.02838692
196200000,-0.000527513,-0.00580556,0.00028113,-0.25981662,0.2148146,-0.027204929
197200000,-0.000519026,-0.005804465,0.000277303,-0.2597224,0.2143471,-0.027046526
198200000,-0.000515169,-0.005798208,0.000287321,-0.2596772,0.21407706,-0.027000425
199200000,-0.000512355,-0.005799234,0.000285038,-0.25962743,0.21372095,-0.027013859
200200000,-0.000497552,-0.005803036,0.000288393,-0.25958294,0.21324714,-0.027898088
201200000,-0.000477301,-0.00581345,0.000288428,-0.25958112,0.2130571,-0.028023053
202200000,-0.000457418,-0.00582022,0.000299584,-0.25960764,0.21273787,-0.028847605
203200000,-0.000436349,-0.005832932,0.000308624,-0.25966674,0.21248941,-0.030534418
204200000,-0.000418798,-0.005844452,0.000313952,-0.25970593,0.21232574,-0.031342294
205200000,-0.000403537,-0.005849943,0.000316167,-0.25972542,0.21236265,-0.03128614
206200000,-0.000384212,-0.005848621,0.000316394,-0.2596664,0.21214107,-0.0311315
207200000,-0.000374138,-0.005844963,0.000322322,-0.2596523,0.21199167,-0.0306311
208200000,-0.000368713,-0.005833408,0.000322459,-0.25958335,0.21191211,-0.030138908
209200000,-0.000364665,-0.005825022,0.000332643,-0.25955975,0.21145663,-0.02883618
210200000,-0.00036903,-0.005818706,0.000340647,-0.25956267,0.21107888,-0.02709724
211200000,-0.000373082,-0.005807577,0.00034693,-0.2595292,0.2102614,-0.023592776
212200000,-0.000384073,-0.005798084,0.000355818,-0.25956258,0.2097044,-0.02123421
213200000,-0.000398896,-0.005797181,0.00035941,-0.2596088,0.2094042,-0.018364405
214200000,-0.000404922,-0.005797175,0.000359554,-0.2596283,0.20874952,-0.014829455
215200000,-0.000406802,-0.005792197,0.000361883,-0.2596683,0.20803584,-0.011540382
216200000,-0.000403992,-0.005796136,0.000366528,-0.259743,0.20734356,-0.007927168
217200000,-0.000399084,-0.005805754,0.000372202,-0.25983134,0.20670459,-0.003912944
218200000,-0.00039404,-0.005822073,0.000381758,-0.25985563,0.2065745,-0.00354334
219200000,-0.000388507,-0.005838621,0.000398496,-0.25938478,0.20651157,-0.003385741
220200000,-0.000380417,-0.005853855,0.000405812,-0.25847745,0.20622006,-0.002772798
221200000,-0.000371417,-0.005868254,0.000412015,-0.25701603,0.20602067,-0.000796219
222200000,-0.000370247,-0.005879961,0.000413498,-0.25560164,0.20611238,0.001793071
